digraph Tree {
node [shape=box] ;
0 [label="Cutter size <= 0.661\nmse = 0.869\nsamples = 159\nvalue = 2.076"] ;
1 [label="Formation <= 0.19\nmse = 0.502\nsamples = 110\nvalue = 1.648"] ;
0 -> 1 [labeldistance=2.5, labelangle=45, headlabel="True"] ;
2 [label="Min Flow Rate <= -0.243\nmse = 0.511\nsamples = 46\nvalue = 2.077"] ;
1 -> 2 ;
3 [label="Min Flow Rate <= -0.417\nmse = 0.296\nsamples = 19\nvalue = 1.527"] ;
2 -> 3 ;
4 [label="Max_RPM <= -1.201\nmse = 0.175\nsamples = 18\nvalue = 1.612"] ;
3 -> 4 ;
5 [label="Log Min WOB <= 0.588\nmse = 0.001\nsamples = 3\nvalue = 2.355"] ;
4 -> 5 ;
6 [label="mse = 0.0\nsamples = 1\nvalue = 2.313"] ;
5 -> 6 ;
7 [label="mse = 0.0\nsamples = 2\nvalue = 2.376"] ;
5 -> 7 ;
8 [label="Depth Average <= 1.454\nmse = 0.078\nsamples = 15\nvalue = 1.463"] ;
4 -> 8 ;
9 [label="mse = 0.068\nsamples = 14\nvalue = 1.432"] ;
8 -> 9 ;
10 [label="mse = -0.0\nsamples = 1\nvalue = 1.902"] ;
8 -> 10 ;
11 [label="mse = 0.0\nsamples = 1\nvalue = 0.0"] ;
3 -> 11 ;
12 [label="Min_RPM <= -1.29\nmse = 0.301\nsamples = 27\nvalue = 2.463"] ;
2 -> 12 ;
13 [label="mse = 0.0\nsamples = 1\nvalue = 3.912"] ;
12 -> 13 ;
14 [label="Min_RPM <= -0.435\nmse = 0.229\nsamples = 26\nvalue = 2.408"] ;
12 -> 14 ;
15 [label="TFA <= -0.216\nmse = 0.195\nsamples = 5\nvalue = 1.831"] ;
14 -> 15 ;
16 [label="mse = 0.002\nsamples = 2\nvalue = 1.321"] ;
15 -> 16 ;
17 [label="mse = 0.035\nsamples = 3\nvalue = 2.171"] ;
15 -> 17 ;
18 [label="TFA <= 0.741\nmse = 0.139\nsamples = 21\nvalue = 2.545"] ;
14 -> 18 ;
19 [label="mse = 0.081\nsamples = 19\nvalue = 2.628"] ;
18 -> 19 ;
20 [label="mse = 0.0\nsamples = 2\nvalue = 1.758"] ;
18 -> 20 ;
21 [label="HSI <= 0.854\nmse = 0.268\nsamples = 64\nvalue = 1.341"] ;
1 -> 21 ;
22 [label="Min_RPM <= -0.845\nmse = 0.216\nsamples = 52\nvalue = 1.216"] ;
21 -> 22 ;
23 [label="HSI <= -0.856\nmse = 0.188\nsamples = 11\nvalue = 0.716"] ;
22 -> 23 ;
24 [label="HSI <= -0.966\nmse = 0.011\nsamples = 5\nvalue = 0.338"] ;
23 -> 24 ;
25 [label="mse = 0.003\nsamples = 2\nvalue = 0.459"] ;
24 -> 25 ;
26 [label="mse = 0.0\nsamples = 3\nvalue = 0.257"] ;
24 -> 26 ;
27 [label="Max WOB <= 0.715\nmse = 0.117\nsamples = 6\nvalue = 1.031"] ;
23 -> 27 ;
28 [label="mse = 0.041\nsamples = 4\nvalue = 1.23"] ;
27 -> 28 ;
29 [label="mse = 0.033\nsamples = 2\nvalue = 0.633"] ;
27 -> 29 ;
30 [label="Max_RPM <= 1.561\nmse = 0.139\nsamples = 41\nvalue = 1.35"] ;
22 -> 30 ;
31 [label="Torque Min <= 0.69\nmse = 0.097\nsamples = 34\nvalue = 1.451"] ;
30 -> 31 ;
32 [label="mse = 0.08\nsamples = 23\nvalue = 1.55"] ;
31 -> 32 ;
33 [label="mse = 0.07\nsamples = 11\nvalue = 1.245"] ;
31 -> 33 ;
34 [label="Log Footage <= 0.038\nmse = 0.046\nsamples = 7\nvalue = 0.857"] ;
30 -> 34 ;
35 [label="mse = 0.003\nsamples = 5\nvalue = 0.726"] ;
34 -> 35 ;
36 [label="mse = 0.003\nsamples = 2\nvalue = 1.183"] ;
34 -> 36 ;
37 [label="Max_RPM <= -0.855\nmse = 0.135\nsamples = 12\nvalue = 1.882"] ;
21 -> 37 ;
38 [label="mse = 0.0\nsamples = 1\nvalue = 2.644"] ;
37 -> 38 ;
39 [label="Max_RPM <= -0.096\nmse = 0.09\nsamples = 11\nvalue = 1.813"] ;
37 -> 39 ;
40 [label="Mud Weight <= -0.808\nmse = 0.058\nsamples = 8\nvalue = 1.934"] ;
39 -> 40 ;
41 [label="mse = 0.038\nsamples = 5\nvalue = 1.801"] ;
40 -> 41 ;
42 [label="mse = 0.015\nsamples = 3\nvalue = 2.155"] ;
40 -> 42 ;
43 [label="Torque Max <= 0.428\nmse = 0.029\nsamples = 3\nvalue = 1.49"] ;
39 -> 43 ;
44 [label="mse = 0.0\nsamples = 2\nvalue = 1.609"] ;
43 -> 44 ;
45 [label="mse = -0.0\nsamples = 1\nvalue = 1.25"] ;
43 -> 45 ;
46 [label="Torque Max <= 0.168\nmse = 0.364\nsamples = 49\nvalue = 3.035"] ;
0 -> 46 [labeldistance=2.5, labelangle=-45, headlabel="False"] ;
47 [label="Re_Run <= 0.249\nmse = 0.169\nsamples = 15\nvalue = 2.607"] ;
46 -> 47 ;
48 [label="Min Flow Rate <= 0.921\nmse = 0.087\nsamples = 12\nvalue = 2.451"] ;
47 -> 48 ;
49 [label="Structure <= 0.472\nmse = 0.002\nsamples = 6\nvalue = 2.261"] ;
48 -> 49 ;
50 [label="mse = 0.0\nsamples = 2\nvalue = 2.203"] ;
49 -> 50 ;
51 [label="mse = 0.0\nsamples = 4\nvalue = 2.289"] ;
49 -> 51 ;
52 [label="TFA <= 0.383\nmse = 0.099\nsamples = 6\nvalue = 2.642"] ;
48 -> 52 ;
53 [label="Min_RPM <= -0.201\nmse = 0.025\nsamples = 5\nvalue = 2.768"] ;
52 -> 53 ;
54 [label="mse = 0.0\nsamples = 2\nvalue = 2.961"] ;
53 -> 54 ;
55 [label="mse = -0.0\nsamples = 3\nvalue = 2.639"] ;
53 -> 55 ;
56 [label="mse = 0.0\nsamples = 1\nvalue = 2.015"] ;
52 -> 56 ;
57 [label="Max WOB <= 0.242\nmse = 0.01\nsamples = 3\nvalue = 3.231"] ;
47 -> 57 ;
58 [label="mse = 0.0\nsamples = 1\nvalue = 3.371"] ;
57 -> 58 ;
59 [label="mse = -0.0\nsamples = 2\nvalue = 3.161"] ;
57 -> 59 ;
60 [label="Torque Max <= 0.689\nmse = 0.334\nsamples = 34\nvalue = 3.223"] ;
46 -> 60 ;
61 [label="Manufacturer <= -1.346\nmse = 0.226\nsamples = 20\nvalue = 3.543"] ;
60 -> 61 ;
62 [label="mse = 0.0\nsamples = 1\nvalue = 1.974"] ;
61 -> 62 ;
63 [label="TFA <= 2.184\nmse = 0.101\nsamples = 19\nvalue = 3.626"] ;
61 -> 63 ;
64 [label="HSI <= -0.85\nmse = 0.037\nsamples = 17\nvalue = 3.715"] ;
63 -> 64 ;
65 [label="mse = 0.005\nsamples = 5\nvalue = 3.458"] ;
64 -> 65 ;
66 [label="mse = 0.012\nsamples = 12\nvalue = 3.822"] ;
64 -> 66 ;
67 [label="mse = 0.0\nsamples = 2\nvalue = 2.867"] ;
63 -> 67 ;
68 [label="Torque Min <= 1.114\nmse = 0.133\nsamples = 14\nvalue = 2.766"] ;
60 -> 68 ;
69 [label="Size <= 0.634\nmse = 0.071\nsamples = 9\nvalue = 2.974"] ;
68 -> 69 ;
70 [label="Mud Weight <= 1.62\nmse = 0.015\nsamples = 7\nvalue = 2.843"] ;
69 -> 70 ;
71 [label="mse = 0.006\nsamples = 6\nvalue = 2.884"] ;
70 -> 71 ;
72 [label="mse = 0.0\nsamples = 1\nvalue = 2.595"] ;
70 -> 72 ;
73 [label="mse = -0.0\nsamples = 2\nvalue = 3.431"] ;
69 -> 73 ;
74 [label="HSI <= 0.107\nmse = 0.026\nsamples = 5\nvalue = 2.393"] ;
68 -> 74 ;
75 [label="mse = 0.0\nsamples = 2\nvalue = 2.195"] ;
74 -> 75 ;
76 [label="mse = 0.0\nsamples = 3\nvalue = 2.526"] ;
74 -> 76 ;
}